<?xml version="1.0"?>
<opencv_storage>
<opencv_ml_svm>
  <format>3</format>
  <svmType>C_SVC</svmType>
  <kernel>
    <type>RBF</type>
    <gamma>5.0625000000000009e-01</gamma></kernel>
  <C>3.1250000000000000e+02</C>
  <term_criteria><epsilon>1.1920928955078125e-07</epsilon>
    <iterations>1000</iterations></term_criteria>
  <var_count>13</var_count>
  <class_count>2</class_count>
  <class_labels type_id="opencv-matrix">
    <rows>2</rows>
    <cols>1</cols>
    <dt>i</dt>
    <data>
      -1 1</data></class_labels>
  <sv_total>81</sv_total>
  <support_vectors>
    <_>
      5.07923625e-02 8.49248320e-02 9.02072340e-02 5.97318187e-02
      6.78585917e-02 1.70662329e-02 5.77001236e-02 2.60463238e-01
      1.45875663e-01 4.42909375e-02 1.70662329e-02 5.97318187e-02
      4.42909375e-02</_>
    <_>
      1.57894731e-01 2.63157904e-01 0. 0. 5.26315793e-02 0.
      5.26315793e-02 0. 5.26315793e-02 1.57894731e-01 1.05263159e-01 0.
      1.57894731e-01</_>
    <_>
      1.90476194e-01 4.76190485e-02 0. 0. 0. 0. 1.90476194e-01 0. 0.
      1.42857149e-01 0. 1.42857149e-01 2.85714298e-01</_>
    <_>
      7.69230798e-02 7.69230798e-02 0. 7.69230798e-02 0. 0.
      1.53846160e-01 0. 0. 7.69230798e-02 0. 3.07692319e-01
      2.30769247e-01</_>
    <_>
      4.76190485e-02 0. 9.52380970e-02 0. 2.38095239e-01 1.42857149e-01
      1.42857149e-01 0. 0. 9.52380970e-02 4.76190485e-02 4.76190485e-02
      1.42857149e-01</_>
    <_>
      1.76470593e-01 1.17647059e-01 2.35294119e-01 0. 0. 0.
      5.88235296e-02 0. 0. 5.88235296e-02 0. 1.17647059e-01
      2.35294119e-01</_>
    <_>
      1.66666672e-01 0. 1.11111112e-01 1.11111112e-01 5.55555560e-02 0.
      1.11111112e-01 0. 0. 5.55555560e-02 5.55555560e-02 5.55555560e-02
      2.77777791e-01</_>
    <_>
      6.63198978e-02 8.06241855e-02 6.63198978e-02 7.15214536e-02
      8.19245800e-02 1.95058510e-02 2.47074123e-02 2.47074127e-01
      2.49674901e-01 1.04031209e-02 1.04031209e-02 6.24187253e-02
      9.10273101e-03</_>
    <_>
      1.08374380e-01 5.41871898e-02 2.16748759e-01 2.95566507e-02
      9.85221639e-02 4.92610829e-03 6.40394092e-02 1.52709350e-01
      9.85221658e-03 9.35960561e-02 3.94088663e-02 8.37438405e-02
      4.43349741e-02</_>
    <_>
      7.14285746e-02 3.57142866e-01 0. 0. 0. 0. 0. 7.14285746e-02
      7.14285746e-02 7.14285746e-02 1.42857149e-01 7.14285746e-02
      1.42857149e-01</_>
    <_>
      7.73026347e-02 1.54605269e-01 9.86842141e-02 7.23684207e-02
      4.11184207e-02 1.64473685e-03 4.44078967e-02 2.28618428e-01
      1.26644731e-01 2.63157897e-02 9.86842066e-03 1.03618421e-01
      1.48026319e-02</_>
    <_>
      3.49206366e-02 7.46031776e-02 1.06349207e-01 1.20634921e-01
      6.82539716e-02 4.44444455e-02 4.28571440e-02 2.17460319e-01
      1.34920642e-01 6.66666701e-02 2.69841272e-02 4.28571440e-02
      1.90476198e-02</_>
    <_>
      1.87500000e-01 6.25000000e-02 1.25000000e-01 6.25000000e-02 0. 0.
      6.25000000e-02 0. 6.25000000e-02 0. 6.25000000e-02 2.50000000e-01
      1.25000000e-01</_>
    <_>
      0. 4.37500000e-01 0. 6.25000000e-02 0. 1.87500000e-01 0. 0. 0.
      1.87500000e-01 1.25000000e-01 0. 0.</_>
    <_>
      0. 1.81818187e-01 1.81818187e-01 1.81818187e-01 0. 9.09090936e-02
      9.09090936e-02 9.09090936e-02 9.09090936e-02 0. 0. 9.09090936e-02
      0.</_>
    <_>
      9.63503644e-02 8.32116753e-02 1.41605839e-01 1.29927009e-01
      7.29926974e-02 1.60583928e-02 6.27737194e-02 1.50364950e-01
      7.29926974e-02 6.42335713e-02 2.77372245e-02 6.56934306e-02
      1.60583928e-02</_>
    <_>
      6.66666701e-02 6.66666701e-02 1.33333340e-01 2.00000018e-01 0. 0.
      6.66666701e-02 0. 0. 1.33333340e-01 1.33333340e-01 6.66666701e-02
      1.33333340e-01</_>
    <_>
      2.22222224e-01 1.11111112e-01 1.11111112e-01 0. 0. 1.11111112e-01
      1.11111112e-01 0. 0. 0. 0. 1.66666672e-01 1.66666672e-01</_>
    <_>
      6.81244731e-02 9.41968039e-02 1.11017659e-01 1.12699747e-01
      6.81244731e-02 2.27081589e-02 9.25147161e-02 1.51387721e-01
      7.06476048e-02 6.81244731e-02 2.35492010e-02 6.98065609e-02
      4.70984019e-02</_>
    <_>
      6.70640841e-02 1.32637858e-01 1.23695977e-01 6.11028336e-02
      4.76900153e-02 1.34128164e-02 4.91803288e-02 1.92250371e-01
      1.32637858e-01 7.30253384e-02 1.93740688e-02 5.96125200e-02
      2.83159465e-02</_>
    <_>
      9.25925933e-03 1.85185187e-02 1.57407403e-01 2.77777780e-02
      2.12962970e-01 9.25925970e-02 9.25925970e-02 9.25925933e-03
      1.85185187e-02 1.29629627e-01 5.55555560e-02 7.40740746e-02
      1.01851851e-01</_>
    <_>
      2.75590550e-02 1.57480314e-02 1.25984251e-01 3.14960629e-02
      5.90551198e-02 4.72440943e-02 7.87401572e-03 2.36220479e-01
      2.40157485e-01 1.41732275e-01 1.57480314e-02 3.93700786e-02
      1.18110236e-02</_>
    <_>
      7.34127015e-02 7.34127015e-02 1.56746045e-01 5.95238134e-02
      8.92857164e-02 3.76984142e-02 9.32539701e-02 7.53968284e-02
      3.57142873e-02 9.52381045e-02 6.15079403e-02 8.13492090e-02
      6.74603209e-02</_>
    <_>
      7.12643713e-02 8.55172426e-02 8.04597735e-02 8.82758647e-02
      9.01149437e-02 1.65517237e-02 3.35632190e-02 2.25747123e-01
      1.72873572e-01 3.17241400e-02 2.06896551e-02 6.71264380e-02
      1.60919540e-02</_>
    <_>
      6.74356744e-02 7.18722269e-02 5.98935261e-02 5.05767539e-02
      4.25909497e-02 2.08518188e-02 1.91215619e-01 1.44631773e-01
      9.71606076e-02 5.36823422e-02 2.26264428e-02 6.74356744e-02
      1.10026620e-01</_>
    <_>
      1.05058365e-01 9.33852121e-02 1.51750967e-01 6.61478564e-02
      1.28404662e-01 3.50194536e-02 7.39299580e-02 1.28404662e-01
      5.83657585e-02 5.83657585e-02 2.72373538e-02 5.44747077e-02
      1.94552522e-02</_>
    <_>
      6.39419928e-02 1.00856952e-01 8.23994726e-02 8.30586627e-02
      8.70138407e-02 3.36189829e-02 4.28477265e-02 2.10283443e-01
      1.46341458e-01 3.88925485e-02 1.38431108e-02 6.78971633e-02
      2.90046129e-02</_>
    <_>
      1.21495321e-01 1.27725855e-01 1.12149529e-01 9.96884704e-02
      7.47663528e-02 5.29595017e-02 8.72274116e-02 9.34579372e-02
      2.80373823e-02 4.98442352e-02 2.80373823e-02 8.72274116e-02
      3.73831764e-02</_>
    <_>
      6.47921786e-02 1.06356971e-01 1.44254282e-01 7.94621035e-02
      8.06846023e-02 8.55745748e-03 8.80195647e-02 1.74816638e-01
      9.65770185e-02 2.07823962e-02 1.58924218e-02 7.45721310e-02
      4.52322774e-02</_>
    <_>
      5.90596311e-02 1.27293572e-01 5.33256866e-02 8.08486193e-02
      3.95642184e-02 2.52293572e-02 3.15366946e-02 2.20183477e-01
      2.15596318e-01 4.41513732e-02 2.92431172e-02 4.93119247e-02
      2.46559624e-02</_>
    <_>
      4.08163257e-02 2.85714269e-02 9.79591757e-02 2.04081628e-02
      1.14285707e-01 4.48979586e-02 4.08163248e-03 2.08163261e-01
      2.44897947e-01 1.42857134e-01 1.22448970e-02 3.26530598e-02
      8.16326495e-03</_>
    <_>
      7.16510937e-02 1.10072695e-01 1.23572178e-01 6.54205605e-02
      8.82658362e-02 4.15368676e-02 5.39979264e-02 1.69262722e-01
      7.99584687e-02 6.64589852e-02 2.80373842e-02 6.02284558e-02
      4.15368676e-02</_>
    <_>
      8.11881199e-02 1.28712878e-01 1.24752477e-01 7.32673258e-02
      4.55445573e-02 1.18811885e-02 3.76237631e-02 2.03960404e-01
      1.54455453e-01 3.56435664e-02 1.38613861e-02 5.94059415e-02
      2.97029708e-02</_>
    <_>
      0. 6.25000000e-02 6.25000000e-02 0. 0. 0. 4.37500000e-01 0. 0. 0.
      6.25000000e-02 6.25000000e-02 3.12500000e-01</_>
    <_>
      1.57894731e-01 0. 0. 0. 0. 0. 3.68421048e-01 0. 0. 5.26315793e-02
      0. 1.05263159e-01 3.15789461e-01</_>
    <_>
      1.76470593e-01 5.88235296e-02 5.88235296e-02 0. 0. 5.88235296e-02
      5.88235296e-02 5.88235296e-02 0. 5.88235296e-02 1.17647059e-01
      1.76470593e-01 1.76470593e-01</_>
    <_>
      1.42857149e-01 9.52380970e-02 0. 0. 1.42857149e-01 9.52380970e-02
      9.52380970e-02 0. 0. 9.52380970e-02 9.52380970e-02 0.
      2.38095239e-01</_>
    <_>
      4.76190485e-02 4.76190485e-02 0. 1.42857149e-01 1.90476194e-01
      1.90476194e-01 2.38095239e-01 0. 4.76190485e-02 0. 0.
      9.52380970e-02 0.</_>
    <_>
      5.88235296e-02 5.88235296e-02 5.88235296e-02 0. 0. 0.
      3.52941185e-01 0. 0. 1.17647059e-01 5.88235296e-02 1.76470593e-01
      1.17647059e-01</_>
    <_>
      5.14705889e-02 1.19117647e-01 1.30882353e-01 6.91176504e-02
      4.85294126e-02 1.32352943e-02 5.88235296e-02 2.10294127e-01
      1.27941176e-01 6.32352978e-02 1.76470596e-02 6.17647059e-02
      2.79411767e-02</_>
    <_>
      1.25000000e-01 6.25000000e-02 6.25000000e-02 0. 0. 0.
      2.50000000e-01 0. 0. 1.25000000e-01 1.25000000e-01 6.25000000e-02
      1.87500000e-01</_>
    <_>
      1.42857149e-01 7.14285746e-02 1.42857149e-01 0. 0. 1.42857149e-01
      0. 0. 7.14285746e-02 2.85714298e-01 0. 7.14285746e-02
      7.14285746e-02</_>
    <_>
      6.22356534e-02 1.37764350e-01 9.30513665e-02 1.52870104e-01
      1.69184301e-02 1.69184301e-02 5.86102754e-02 1.52265862e-01
      8.03625435e-02 7.31117874e-02 4.83383685e-02 6.28398806e-02
      4.47129942e-02</_>
    <_>
      6.27272725e-02 1.19090907e-01 1.03636362e-01 1.22727275e-01
      3.69696990e-02 2.36363634e-02 6.30303025e-02 1.31818175e-01
      1.34242430e-01 7.27272704e-02 3.96969691e-02 5.84848486e-02
      3.12121212e-02</_>
    <_>
      2.12765969e-02 6.68693036e-02 9.42249224e-02 2.73556225e-02
      1.12462007e-01 8.51063877e-02 1.24620065e-01 1.39817625e-01
      7.29483292e-02 4.25531939e-02 7.90273547e-02 3.95136774e-02
      9.42249224e-02</_>
    <_>
      3.47551331e-02 3.15955766e-02 5.21327034e-02 2.36966833e-02
      2.52764616e-02 1.10584516e-02 1.10584516e-02 3.91785145e-01
      3.55450243e-01 1.57977883e-02 0. 4.26540300e-02 4.73933667e-03</_>
    <_>
      1.14285715e-01 8.57142881e-02 5.71428575e-02 1.42857149e-01
      1.14285715e-01 0. 2.85714287e-02 1.14285715e-01 2.00000003e-01 0.
      0. 1.42857149e-01 0.</_>
    <_>
      9.49671790e-02 1.30853400e-01 1.02844641e-01 6.43326044e-02
      2.10065655e-02 3.50109418e-03 1.45295411e-01 1.19037203e-01
      6.25820607e-02 7.17724338e-02 1.35667399e-02 9.58424509e-02
      7.43982494e-02</_>
    <_>
      1.60642564e-02 4.81927693e-02 3.61445770e-02 0. 4.01606411e-03
      4.01606411e-03 3.01204801e-01 0. 0. 6.42570257e-02 3.61445770e-02
      1.20481923e-02 4.77911621e-01</_>
    <_>
      5.26315756e-02 1.62679419e-01 1.91387553e-02 2.39234436e-02
      3.34928222e-02 3.34928222e-02 1.96172237e-01 4.78468882e-03
      9.56937764e-03 1.38755977e-01 9.56937764e-03 1.43540666e-01
      1.72248796e-01</_>
    <_>
      7.25388601e-02 2.07253881e-02 1.55440411e-02 2.07253881e-02
      1.55440411e-02 4.14507762e-02 3.16062182e-01 0. 0. 7.77202025e-02
      2.07253881e-02 5.69948182e-02 3.41968894e-01</_>
    <_>
      4.72901165e-02 3.75487059e-02 9.48754326e-02 3.51281129e-02
      7.19093159e-02 6.11642450e-02 9.70598683e-02 1.35198962e-02
      1.09221870e-02 1.41929388e-01 2.10237339e-01 4.81757000e-02
      1.30239695e-01</_>
    <_>
      1.21212125e-01 7.07070678e-02 5.05050495e-02 1.01010101e-02
      5.05050505e-03 5.05050505e-03 3.03030312e-01 1.01010101e-02
      1.51515156e-02 7.07070678e-02 1.01010101e-02 1.21212125e-01
      2.07070708e-01</_>
    <_>
      1.18246682e-01 5.50458692e-02 1.19266048e-01 5.09683974e-02
      5.60652390e-02 1.93679910e-02 1.32517830e-01 7.13557601e-02
      7.13557564e-03 8.05300698e-02 5.40264994e-02 1.14169210e-01
      1.21304788e-01</_>
    <_>
      8.97755623e-02 5.23690805e-02 1.17206983e-01 4.98753134e-03
      5.23690805e-02 2.49376558e-02 2.49376558e-02 2.04488784e-01
      2.66832918e-01 6.48379102e-02 2.24438906e-02 7.48129711e-02 0.</_>
    <_>
      8.90151560e-02 1.06060609e-01 1.19318187e-01 8.90151560e-02
      4.16666679e-02 2.65151523e-02 9.84848514e-02 7.00757578e-02
      3.03030312e-02 1.06060609e-01 8.71212184e-02 7.00757578e-02
      6.62878826e-02</_>
    <_>
      8.50340128e-02 5.44217676e-02 1.97278902e-01 6.12244904e-02
      9.18367356e-02 3.40136066e-02 4.42176871e-02 1.36054426e-01
      7.14285672e-02 5.78231290e-02 4.08163257e-02 9.52380896e-02
      3.06122452e-02</_>
    <_>
      8.91530439e-02 1.22585438e-01 1.09212480e-01 1.29271910e-01
      5.12630008e-02 2.82317977e-02 8.54383335e-02 1.21842496e-01
      6.09212480e-02 5.72065376e-02 3.86329852e-02 7.13224337e-02
      3.49182747e-02</_>
    <_>
      6.38888925e-02 1.97222233e-01 8.81944448e-02 1.33333340e-01
      1.52777778e-02 3.61111127e-02 1.08333334e-01 8.54166672e-02
      3.33333351e-02 8.88888910e-02 3.26388888e-02 6.11111112e-02
      5.62500022e-02</_>
    <_>
      6.25000000e-02 2.50000000e-01 1.01973683e-01 1.51315793e-01
      5.26315793e-02 6.57894742e-03 5.92105277e-02 2.63157897e-02
      1.38157889e-01 6.57894742e-03 1.97368413e-02 8.88157934e-02
      3.61842103e-02</_>
    <_>
      8.10126588e-02 4.30379733e-02 1.94936708e-01 2.02531647e-02
      8.10126588e-02 5.31645566e-02 2.78481022e-02 2.27848098e-01
      7.59493709e-02 7.84810111e-02 1.77215189e-02 8.60759467e-02
      1.26582282e-02</_>
    <_>
      8.90688300e-02 6.47773296e-02 1.86234817e-01 2.83400826e-02
      1.45748988e-01 2.02429146e-02 4.45344150e-02 1.09311745e-01
      7.69230798e-02 1.13360330e-01 3.64372469e-02 2.83400826e-02
      5.66801652e-02</_>
    <_>
      5.58882244e-02 8.38323385e-02 1.75648704e-01 7.38522932e-02
      5.58882244e-02 4.39121760e-02 1.39720561e-02 2.49501005e-01
      1.53692618e-01 5.78842312e-02 1.99600798e-03 2.99401190e-02
      3.99201596e-03</_>
    <_>
      9.80176181e-02 8.81057233e-02 1.12334795e-01 7.92951509e-02
      6.49779737e-02 2.86343601e-02 1.40969157e-01 7.37885460e-02
      2.20264308e-02 6.16740063e-02 4.40528616e-02 9.25110132e-02
      9.36123282e-02</_>
    <_>
      7.47126415e-02 1.43678159e-01 4.59770113e-02 1.65517241e-01
      1.60919540e-02 8.16091970e-02 7.24137947e-02 1.25287354e-01
      1.29885063e-01 2.06896551e-02 1.49425287e-02 8.85057449e-02
      2.06896551e-02</_>
    <_>
      1.25996813e-01 1.35566190e-01 7.17703328e-02 7.33652338e-02
      2.23285481e-02 2.23285481e-02 8.45295042e-02 8.13397095e-02
      9.72886756e-02 9.09090862e-02 2.71132365e-02 1.08452946e-01
      5.90111651e-02</_>
    <_>
      9.63855386e-02 8.83534104e-02 1.16465859e-01 2.40963846e-02
      7.22891539e-02 8.03212821e-03 1.56626493e-01 1.00401603e-01
      3.61445770e-02 2.81124488e-02 3.21285129e-02 1.00401603e-01
      1.40562236e-01</_>
    <_>
      6.00858368e-02 6.86695278e-02 1.84549361e-01 3.43347639e-02
      1.24463521e-01 5.15021458e-02 1.45922750e-01 8.58369097e-02
      4.29184549e-03 3.43347639e-02 1.07296139e-01 4.29184549e-02
      5.57939932e-02</_>
    <_>
      6.80272132e-02 3.40136066e-02 2.17687070e-01 1.70068033e-02
      8.84353742e-02 2.04081628e-02 7.14285672e-02 2.04081625e-01
      3.06122452e-02 1.15646258e-01 4.42176871e-02 5.78231290e-02
      3.06122452e-02</_>
    <_>
      1.20930234e-02 8.27907026e-02 2.23255828e-02 3.62790711e-02
      2.23255828e-02 4.55813967e-02 4.65116277e-03 3.06976765e-01
      3.80465120e-01 5.20930253e-02 8.37209355e-03 1.86046511e-02
      7.44186062e-03</_>
    <_>
      0. 3.69565219e-01 0. 4.34782617e-02 0. 0. 1.08695656e-01
      6.52173907e-02 1.08695656e-01 0. 1.08695656e-01 0. 1.95652172e-01</_>
    <_>
      4.19947505e-02 1.49606302e-01 1.10236220e-01 5.77427819e-02
      2.09973752e-02 6.03674538e-02 2.88713910e-02 2.54593164e-01
      1.25984251e-01 5.77427819e-02 3.41207348e-02 4.46194224e-02
      1.31233595e-02</_>
    <_>
      4.88721803e-02 8.64661708e-02 1.69172943e-01 7.51879718e-03
      1.50375947e-01 1.05263159e-01 1.09022558e-01 7.51879737e-02
      3.75939859e-03 6.01503775e-02 7.51879737e-02 4.88721803e-02
      6.01503775e-02</_>
    <_>
      9.13978517e-02 4.83870953e-02 2.68817209e-02 3.76344100e-02
      2.15053763e-02 0. 2.47311831e-01 5.37634408e-03 0. 6.45161271e-02
      5.91397844e-02 1.12903222e-01 2.84946233e-01</_>
    <_>
      1.03641458e-01 1.26050428e-01 1.38655469e-01 1.07843138e-01
      2.52100844e-02 1.82072837e-02 5.60224093e-02 7.14285746e-02
      5.46218492e-02 1.10644259e-01 3.50140072e-02 1.09243698e-01
      4.34173681e-02</_>
    <_>
      1.11111104e-01 6.58436194e-02 9.25925896e-02 3.29218097e-02
      1.37860075e-01 6.37860075e-02 8.23045224e-02 6.79012313e-02
      4.52674888e-02 7.20164552e-02 4.11522612e-02 9.67078134e-02
      9.05349776e-02</_>
    <_>
      6.92307726e-02 1.00000001e-01 1.76923081e-01 6.53846189e-02
      2.69230772e-02 3.07692308e-02 2.30769236e-02 2.69230783e-01
      1.03846155e-01 3.46153863e-02 4.23076935e-02 5.00000007e-02
      7.69230770e-03</_>
    <_>
      9.09090862e-02 4.99999970e-02 5.90909086e-02 0. 5.45454547e-02
      1.81818176e-02 1.77272722e-01 4.09090891e-02 0. 6.36363626e-02
      1.09090909e-01 4.09090891e-02 2.95454532e-01</_>
    <_>
      1.03960395e-01 1.48514844e-02 1.13861382e-01 4.95049497e-03
      5.94059378e-02 9.90098994e-03 2.17821777e-01 2.47524753e-02 0.
      4.45544533e-02 5.94059378e-02 1.08910888e-01 2.37623751e-01</_>
    <_>
      5.64034507e-02 1.88453883e-01 1.13470472e-01 1.06834769e-01
      2.45520901e-02 5.24220318e-02 7.96284005e-02 5.77305928e-02
      3.91506292e-02 1.31386861e-01 5.57398796e-02 6.10484406e-02
      3.31785008e-02</_>
    <_>
      1.04761906e-01 5.23809530e-02 1.23809531e-01 3.80952395e-02
      1.00000001e-01 9.52380989e-03 1.80952385e-01 9.52380989e-03
      4.76190494e-03 8.57142881e-02 5.23809530e-02 7.14285746e-02
      1.66666672e-01</_></support_vectors>
  <decision_functions>
    <_>
      <sv_count>81</sv_count>
      <rho>2.7852277559009391e+01</rho>
      <alpha>
        3.1250000000000000e+02 5.2705980048351961e+01
        3.1250000000000000e+02 1.4389792806745069e+02
        3.1250000000000000e+02 3.1250000000000000e+02
        3.1250000000000000e+02 3.1250000000000000e+02
        3.1250000000000000e+02 3.1250000000000000e+02
        3.5896037694062159e+01 2.4996656862456763e+02
        3.1250000000000000e+02 1.9553687889824104e+01
        3.1250000000000000e+02 3.1250000000000000e+02
        3.1250000000000000e+02 3.1250000000000000e+02
        3.1250000000000000e+02 3.1250000000000000e+02
        3.1250000000000000e+02 2.9898415091642244e+02
        2.0414841306528507e+02 3.1250000000000000e+02
        3.1250000000000000e+02 1.5829525539478222e+01
        1.7004729425884244e+02 3.1250000000000000e+02
        3.1250000000000000e+02 1.8045219047479404e+02
        3.1250000000000000e+02 1.7756908299408829e+02
        5.2891031260671852e+01 2.0845610854090006e+02
        3.1250000000000000e+02 3.1250000000000000e+02
        8.5149805094210734e+01 3.1250000000000000e+02
        3.1250000000000000e+02 -5.9790142307801844e+01
        -3.1250000000000000e+02 -3.1250000000000000e+02
        -2.1569997644080328e+01 -1.7550572795392705e+02
        -9.7926678315034479e+01 -2.8800594429140585e+02
        -3.1250000000000000e+02 -3.1250000000000000e+02
        -3.1250000000000000e+02 -1.3518927373067365e+02
        -3.1250000000000000e+02 -3.1250000000000000e+02
        -3.1250000000000000e+02 -1.7467285840221729e+02
        -2.2680124009710426e+02 -3.1250000000000000e+02
        -9.8685506888988115e+01 -3.1250000000000000e+02
        -3.1250000000000000e+02 -3.1250000000000000e+02
        -3.1250000000000000e+02 -3.1250000000000000e+02
        -2.4542672854363551e+02 -3.1250000000000000e+02
        -3.1250000000000000e+02 -3.1250000000000000e+02
        -1.4760942710290198e+01 -1.5055284029650852e+02
        -3.1250000000000000e+02 -3.1250000000000000e+02
        -1.7167805433197421e+02 -3.1250000000000000e+02
        -3.1250000000000000e+02 -1.9725941789580793e+02
        -2.0462865181392229e+02 -1.3634057722732834e+02
        -5.4617786991425348e+01 -2.4022804619583185e+00
        -6.4733154564866553e+01 -3.1250000000000000e+02
        -3.1250000000000000e+02</alpha>
      <index>
        80 79 78 77 76 75 74 73 72 71 70 69 68 67 66 65 64 63 62 61 60
        59 58 57 56 55 54 53 52 51 50 49 48 47 46 45 44 43 42 41 39 38
        37 36 35 34 33 32 31 30 29 28 27 26 25 24 23 22 21 20 19 18 17
        16 15 14 13 12 11 10 9 8 7 6 5 4 3 2 1 0 40</index></_></decision_functions></opencv_ml_svm>
</opencv_storage>
